Language model created by QuickLM on Sat Jul  2 06:33:49 EDT 2022
Copyright (c) 1996-2010 Carnegie Mellon University and Alexander I. Rudnicky

The model is in standard ARPA format, designed by Doug Paul while he was at MITRE.

The code that was used to produce this language model is available in Open Source.
Please visit http://www.speech.cs.cmu.edu/tools/ for more information

The (fixed) discount mass is 0.5. The backoffs are computed using the ratio method.
This model based on a corpus of 3 sentences and 6 words

\data\
ngram 1=6
ngram 2=7
ngram 3=4

\1-grams:
-0.8239 </s> -0.3010
-0.8239 <s> -0.2304
-1.3010 GOOGLE -0.2304
-1.3010 OPEN -0.2304
-1.3010 TUBE -0.2304
-1.3010 YOU -0.2788

\2-grams:
-0.7782 <s> GOOGLE 0.0000
-0.7782 <s> OPEN 0.0000
-0.7782 <s> YOU 0.0000
-0.3010 GOOGLE </s> -0.3010
-0.3010 OPEN </s> -0.3010
-0.3010 TUBE </s> -0.3010
-0.3010 YOU TUBE 0.0000

\3-grams:
-0.3010 <s> GOOGLE </s>
-0.3010 <s> OPEN </s>
-0.3010 <s> YOU TUBE
-0.3010 YOU TUBE </s>

\end\
